digraph Tree {
node [shape=box, style="filled, rounded", color="black", fontname=helvetica] ;
edge [fontname=helvetica] ;
0 [label="study <= 0.02\ngini = 0.5\nsamples = 1386\nvalue = [691, 695]\nclass = mentalhealth", fillcolor="#399de501"] ;
1 [label="research <= 0.027\ngini = 0.49\nsamples = 1209\nvalue = [690, 519]\nclass = psychology", fillcolor="#e581393f"] ;
0 -> 1 [labeldistance=2.5, labelangle=45, headlabel="True"] ;
3 [label="brain <= 0.031\ngini = 0.475\nsamples = 1125\nvalue = [688, 437]\nclass = psychology", fillcolor="#e581395d"] ;
1 -> 3 ;
5 [label="psychology <= 0.035\ngini = 0.464\nsamples = 1083\nvalue = [687, 396]\nclass = psychology", fillcolor="#e581396c"] ;
3 -> 5 ;
7 [label="2018 <= 0.044\ngini = 0.452\nsamples = 1047\nvalue = [685, 362]\nclass = psychology", fillcolor="#e5813978"] ;
5 -> 7 ;
9 [label="researchers <= 0.034\ngini = 0.441\nsamples = 1019\nvalue = [685, 334]\nclass = psychology", fillcolor="#e5813983"] ;
7 -> 9 ;
11 [label="gini = 0.431\nsamples = 998\nvalue = [685, 313]\nclass = psychology", fillcolor="#e581398a"] ;
9 -> 11 ;
12 [label="gini = 0.0\nsamples = 21\nvalue = [0, 21]\nclass = mentalhealth", fillcolor="#399de5ff"] ;
9 -> 12 ;
10 [label="gini = 0.0\nsamples = 28\nvalue = [0, 28]\nclass = mentalhealth", fillcolor="#399de5ff"] ;
7 -> 10 ;
8 [label="gini = 0.105\nsamples = 36\nvalue = [2, 34]\nclass = mentalhealth", fillcolor="#399de5f0"] ;
5 -> 8 ;
6 [label="depressed recover <= 0.098\ngini = 0.046\nsamples = 42\nvalue = [1, 41]\nclass = mentalhealth", fillcolor="#399de5f9"] ;
3 -> 6 ;
15 [label="gini = 0.0\nsamples = 41\nvalue = [0, 41]\nclass = mentalhealth", fillcolor="#399de5ff"] ;
6 -> 15 ;
16 [label="gini = 0.0\nsamples = 1\nvalue = [1, 0]\nclass = psychology", fillcolor="#e58139ff"] ;
6 -> 16 ;
4 [label="experimental <= 0.141\ngini = 0.046\nsamples = 84\nvalue = [2, 82]\nclass = mentalhealth", fillcolor="#399de5f9"] ;
1 -> 4 ;
17 [label="gini = 0.024\nsamples = 83\nvalue = [1, 82]\nclass = mentalhealth", fillcolor="#399de5fc"] ;
4 -> 17 ;
18 [label="gini = 0.0\nsamples = 1\nvalue = [1, 0]\nclass = psychology", fillcolor="#e58139ff"] ;
4 -> 18 ;
2 [label="hearing <= 0.067\ngini = 0.011\nsamples = 177\nvalue = [1, 176]\nclass = mentalhealth", fillcolor="#399de5fe"] ;
0 -> 2 [labeldistance=2.5, labelangle=-45, headlabel="False"] ;
13 [label="gini = 0.0\nsamples = 176\nvalue = [0, 176]\nclass = mentalhealth", fillcolor="#399de5ff"] ;
2 -> 13 ;
14 [label="gini = 0.0\nsamples = 1\nvalue = [1, 0]\nclass = psychology", fillcolor="#e58139ff"] ;
2 -> 14 ;
}